Language model created by QuickLM on Wed Oct 19 22:38:35 EDT 2016
Copyright (c) 1996-2010 Carnegie Mellon University and Alexander I. Rudnicky

The model is in standard ARPA format, designed by Doug Paul while he was at MITRE.

The code that was used to produce this language model is available in Open Source.
Please visit http://www.speech.cs.cmu.edu/tools/ for more information

The (fixed) discount mass is 0.5. The backoffs are computed using the ratio method.
This model based on a corpus of 137 sentences and 31 words

\data\
ngram 1=31
ngram 2=76
ngram 3=82

\1-grams:
-0.8299 </s> -0.3010
-0.8299 <s> -0.2315
-2.2676 ACE -0.2759
-2.6656 ADD -0.2315
-1.6049 CLUB -0.2315
-2.9666 DEAL -0.2315
-2.0635 DECK -0.2315
-2.1215 DIAMOND -0.2315
-2.6656 EIGHT -0.2858
-2.2676 END -0.2315
-2.9666 FINISH -0.2315
-2.3646 FIVE -0.2804
-1.8874 FIX -0.2315
-2.1885 FOUR -0.2759
-1.8527 HEART -0.2315
-2.6656 JACK -0.2977
-2.4895 KING -0.2858
-2.6656 NINE -0.2838
-1.4351 PASS -0.2315
-1.8874 PILE -0.2315
-2.4895 QUEEN -0.2901
-2.6656 REMOVE -0.2315
-2.3646 SET -0.2315
-2.2676 SEVEN -0.2794
-2.4895 SIX -0.2794
-2.6656 SORT -0.2315
-2.6656 SORTRANK -0.2315
-2.0124 SPADE -0.2315
-2.6656 TEN -0.2838
-2.1885 THREE -0.2759
-2.0124 TWO -0.2759

\2-grams:
-1.7388 <s> ACE 0.0000
-2.1367 <s> ADD 0.0000
-2.4378 <s> DEAL 0.0000
-1.5347 <s> DECK 0.0000
-2.1367 <s> EIGHT 0.0000
-1.7388 <s> END 0.0000
-2.4378 <s> FINISH 0.0000
-1.8357 <s> FIVE 0.0000
-1.3586 <s> FIX 0.0000
-1.6596 <s> FOUR 0.0000
-2.1367 <s> JACK 0.0000
-1.9606 <s> KING 0.0000
-2.1367 <s> NINE 0.0000
-0.9063 <s> PASS 0.0000
-1.3586 <s> PILE 0.0000
-1.9606 <s> QUEEN 0.0000
-2.1367 <s> REMOVE 0.0000
-1.8357 <s> SET 0.0000
-1.7388 <s> SEVEN 0.0000
-1.9606 <s> SIX 0.0000
-2.1367 <s> SORT 0.0000
-2.1367 <s> SORTRANK 0.0000
-2.1367 <s> TEN 0.0000
-1.6596 <s> THREE 0.0000
-1.4835 <s> TWO 0.0000
-0.6990 ACE CLUB 0.0000
-1.0000 ACE DIAMOND 0.0000
-1.0000 ACE HEART 0.0000
-1.0000 ACE SPADE 0.0000
-0.3010 ADD </s> -0.3010
-0.3010 CLUB </s> -0.3010
-0.3010 DEAL </s> -0.3010
-0.3010 DECK </s> -0.3010
-0.3010 DIAMOND </s> -0.3010
-0.6021 EIGHT CLUB 0.0000
-0.6021 EIGHT SPADE 0.0000
-0.3010 END </s> -0.3010
-0.3010 FINISH </s> -0.3010
-0.6021 FIVE CLUB 0.0000
-0.9031 FIVE DIAMOND 0.0000
-0.9031 FIVE HEART 0.0000
-0.3010 FIX </s> -0.3010
-0.6021 FOUR CLUB 0.0000
-1.0792 FOUR DIAMOND 0.0000
-1.0792 FOUR HEART 0.0000
-1.0792 FOUR SPADE 0.0000
-0.3010 HEART </s> -0.3010
-0.3010 JACK DIAMOND 0.0000
-0.7782 KING CLUB 0.0000
-0.4771 KING SPADE 0.0000
-0.6021 NINE CLUB 0.0000
-0.6021 NINE HEART 0.0000
-0.3010 PASS </s> -0.3010
-0.3010 PILE </s> -0.3010
-0.3010 QUEEN CLUB 0.0000
-0.3010 REMOVE </s> -0.3010
-0.3010 SET </s> -0.3010
-0.5229 SEVEN CLUB 0.0000
-1.0000 SEVEN HEART 0.0000
-1.0000 SEVEN SPADE 0.0000
-0.7782 SIX CLUB 0.0000
-0.7782 SIX HEART 0.0000
-0.7782 SIX SPADE 0.0000
-0.3010 SORT </s> -0.3010
-0.3010 SORTRANK </s> -0.3010
-0.3010 SPADE </s> -0.3010
-0.6021 TEN CLUB 0.0000
-0.6021 TEN HEART 0.0000
-0.6021 THREE CLUB 0.0000
-1.0792 THREE DIAMOND 0.0000
-1.0792 THREE HEART 0.0000
-1.0792 THREE SPADE 0.0000
-0.9542 TWO CLUB 0.0000
-1.2553 TWO DIAMOND 0.0000
-0.5563 TWO HEART 0.0000
-1.2553 TWO SPADE 0.0000

\3-grams:
-0.6990 <s> ACE CLUB
-1.0000 <s> ACE DIAMOND
-1.0000 <s> ACE HEART
-1.0000 <s> ACE SPADE
-0.3010 <s> ADD </s>
-0.3010 <s> DEAL </s>
-0.3010 <s> DECK </s>
-0.6021 <s> EIGHT CLUB
-0.6021 <s> EIGHT SPADE
-0.3010 <s> END </s>
-0.3010 <s> FINISH </s>
-0.6021 <s> FIVE CLUB
-0.9031 <s> FIVE DIAMOND
-0.9031 <s> FIVE HEART
-0.3010 <s> FIX </s>
-0.6021 <s> FOUR CLUB
-1.0792 <s> FOUR DIAMOND
-1.0792 <s> FOUR HEART
-1.0792 <s> FOUR SPADE
-0.3010 <s> JACK DIAMOND
-0.7782 <s> KING CLUB
-0.4771 <s> KING SPADE
-0.6021 <s> NINE CLUB
-0.6021 <s> NINE HEART
-0.3010 <s> PASS </s>
-0.3010 <s> PILE </s>
-0.3010 <s> QUEEN CLUB
-0.3010 <s> REMOVE </s>
-0.3010 <s> SET </s>
-0.5229 <s> SEVEN CLUB
-1.0000 <s> SEVEN HEART
-1.0000 <s> SEVEN SPADE
-0.7782 <s> SIX CLUB
-0.7782 <s> SIX HEART
-0.7782 <s> SIX SPADE
-0.3010 <s> SORT </s>
-0.3010 <s> SORTRANK </s>
-0.6021 <s> TEN CLUB
-0.6021 <s> TEN HEART
-0.6021 <s> THREE CLUB
-1.0792 <s> THREE DIAMOND
-1.0792 <s> THREE HEART
-1.0792 <s> THREE SPADE
-0.9542 <s> TWO CLUB
-1.2553 <s> TWO DIAMOND
-0.5563 <s> TWO HEART
-1.2553 <s> TWO SPADE
-0.3010 ACE CLUB </s>
-0.3010 ACE DIAMOND </s>
-0.3010 ACE HEART </s>
-0.3010 ACE SPADE </s>
-0.3010 EIGHT CLUB </s>
-0.3010 EIGHT SPADE </s>
-0.3010 FIVE CLUB </s>
-0.3010 FIVE DIAMOND </s>
-0.3010 FIVE HEART </s>
-0.3010 FOUR CLUB </s>
-0.3010 FOUR DIAMOND </s>
-0.3010 FOUR HEART </s>
-0.3010 FOUR SPADE </s>
-0.3010 JACK DIAMOND </s>
-0.3010 KING CLUB </s>
-0.3010 KING SPADE </s>
-0.3010 NINE CLUB </s>
-0.3010 NINE HEART </s>
-0.3010 QUEEN CLUB </s>
-0.3010 SEVEN CLUB </s>
-0.3010 SEVEN HEART </s>
-0.3010 SEVEN SPADE </s>
-0.3010 SIX CLUB </s>
-0.3010 SIX HEART </s>
-0.3010 SIX SPADE </s>
-0.3010 TEN CLUB </s>
-0.3010 TEN HEART </s>
-0.3010 THREE CLUB </s>
-0.3010 THREE DIAMOND </s>
-0.3010 THREE HEART </s>
-0.3010 THREE SPADE </s>
-0.3010 TWO CLUB </s>
-0.3010 TWO DIAMOND </s>
-0.3010 TWO HEART </s>
-0.3010 TWO SPADE </s>

\end\
